digraph Tree {
node [shape=box, style="filled, rounded", color="black", fontname=helvetica] ;
edge [fontname=helvetica] ;
0 [label="Desserts <= 0.5\nmse = 1.0\nsamples = 178\nvalue = 0.0", fillcolor="#f4c8a8"] ;
1 [label="Chicken <= 0.5\nmse = 0.962\nsamples = 167\nvalue = 0.079", fillcolor="#f3c5a4"] ;
0 -> 1 [labeldistance=2.5, labelangle=45, headlabel="True"] ;
2 [label="Oct <= 0.5\nmse = 0.723\nsamples = 84\nvalue = 0.344", fillcolor="#f1bb94"] ;
1 -> 2 ;
3 [label="Sep <= 0.5\nmse = 0.679\nsamples = 77\nvalue = 0.288", fillcolor="#f1bd97"] ;
2 -> 3 ;
4 [label="Feb <= 0.5\nmse = 0.6\nsamples = 70\nvalue = 0.223", fillcolor="#f2bf9b"] ;
3 -> 4 ;
5 [label="Mar <= 0.5\nmse = 0.648\nsamples = 60\nvalue = 0.283", fillcolor="#f1bd97"] ;
4 -> 5 ;
6 [label="Beef <= 0.5\nmse = 0.712\nsamples = 51\nvalue = 0.352", fillcolor="#f1ba93"] ;
5 -> 6 ;
7 [label="Jan <= 0.5\nmse = 0.779\nsamples = 35\nvalue = 0.445", fillcolor="#f0b78e"] ;
6 -> 7 ;
8 [label="Nov <= 0.5\nmse = 0.784\nsamples = 33\nvalue = 0.494", fillcolor="#f0b58b"] ;
7 -> 8 ;
9 [label="Dec <= 0.5\nmse = 0.82\nsamples = 27\nvalue = 0.563", fillcolor="#efb286"] ;
8 -> 9 ;
10 [label="Apr <= 0.5\nmse = 0.842\nsamples = 22\nvalue = 0.629", fillcolor="#efb083"] ;
9 -> 10 ;
11 [label="Aug <= 0.5\nmse = 0.907\nsamples = 16\nvalue = 0.695", fillcolor="#eead7f"] ;
10 -> 11 ;
12 [label="Jun <= 0.5\nmse = 0.863\nsamples = 11\nvalue = 0.753", fillcolor="#eeab7b"] ;
11 -> 12 ;
13 [label="Sausage <= 0.5\nmse = 0.716\nsamples = 9\nvalue = 0.727", fillcolor="#eeac7d"] ;
12 -> 13 ;
14 [label="Jul <= 0.5\nmse = 0.749\nsamples = 6\nvalue = 0.741", fillcolor="#eeac7c"] ;
13 -> 14 ;
15 [label="mse = 0.335\nsamples = 4\nvalue = 0.745", fillcolor="#eeab7c"] ;
14 -> 15 ;
16 [label="mse = 1.576\nsamples = 2\nvalue = 0.732", fillcolor="#eeac7c"] ;
14 -> 16 ;
17 [label="Jul <= 0.5\nmse = 0.649\nsamples = 3\nvalue = 0.7", fillcolor="#eead7e"] ;
13 -> 17 ;
18 [label="mse = 0.0\nsamples = 1\nvalue = 0.637", fillcolor="#efaf82"] ;
17 -> 18 ;
19 [label="mse = 0.971\nsamples = 2\nvalue = 0.732", fillcolor="#eeac7c"] ;
17 -> 19 ;
20 [label="mse = 1.509\nsamples = 2\nvalue = 0.867", fillcolor="#eda774"] ;
12 -> 20 ;
21 [label="Sausage <= 0.5\nmse = 0.981\nsamples = 5\nvalue = 0.567", fillcolor="#efb286"] ;
11 -> 21 ;
22 [label="mse = 1.217\nsamples = 4\nvalue = 0.61", fillcolor="#efb184"] ;
21 -> 22 ;
23 [label="mse = -0.0\nsamples = 1\nvalue = 0.394", fillcolor="#f1b991"] ;
21 -> 23 ;
24 [label="Fish <= 0.5\nmse = 0.625\nsamples = 6\nvalue = 0.453", fillcolor="#f0b78d"] ;
10 -> 24 ;
25 [label="mse = 0.0\nsamples = 1\nvalue = 0.421", fillcolor="#f0b88f"] ;
24 -> 25 ;
26 [label="mse = 0.749\nsamples = 5\nvalue = 0.459", fillcolor="#f0b68d"] ;
24 -> 26 ;
27 [label="mse = 0.623\nsamples = 5\nvalue = 0.275", fillcolor="#f1bd98"] ;
9 -> 27 ;
28 [label="Fish <= 0.5\nmse = 0.502\nsamples = 6\nvalue = 0.183", fillcolor="#f2c19d"] ;
8 -> 28 ;
29 [label="mse = 0.613\nsamples = 2\nvalue = 0.529", fillcolor="#efb489"] ;
28 -> 29 ;
30 [label="mse = 0.357\nsamples = 4\nvalue = 0.009", fillcolor="#f4c7a8"] ;
28 -> 30 ;
31 [label="mse = -0.0\nsamples = 2\nvalue = -0.362", fillcolor="#f6d6be"] ;
7 -> 31 ;
32 [label="May <= 0.5\nmse = 0.507\nsamples = 16\nvalue = 0.148", fillcolor="#f2c29f"] ;
6 -> 32 ;
33 [label="Jul <= 0.5\nmse = 0.58\nsamples = 12\nvalue = 0.3", fillcolor="#f1bc96"] ;
32 -> 33 ;
34 [label="Apr <= 0.5\nmse = 0.623\nsamples = 10\nvalue = 0.41", fillcolor="#f0b890"] ;
33 -> 34 ;
35 [label="Jun <= 0.5\nmse = 0.305\nsamples = 5\nvalue = 0.329", fillcolor="#f1bb95"] ;
34 -> 35 ;
36 [label="Dec <= 0.5\nmse = 0.195\nsamples = 3\nvalue = 0.268", fillcolor="#f2be98"] ;
35 -> 36 ;
37 [label="mse = 0.0\nsamples = 1\nvalue = 0.232", fillcolor="#f2bf9a"] ;
36 -> 37 ;
38 [label="mse = 0.292\nsamples = 2\nvalue = 0.286", fillcolor="#f1bd97"] ;
36 -> 38 ;
39 [label="mse = 0.456\nsamples = 2\nvalue = 0.421", fillcolor="#f0b88f"] ;
35 -> 39 ;
40 [label="mse = 0.928\nsamples = 5\nvalue = 0.491", fillcolor="#f0b58b"] ;
34 -> 40 ;
41 [label="mse = -0.0\nsamples = 2\nvalue = -0.254", fillcolor="#f6d2b8"] ;
33 -> 41 ;
42 [label="mse = 0.009\nsamples = 4\nvalue = -0.308", fillcolor="#f6d4bb"] ;
32 -> 42 ;
43 [label="Fish <= 0.5\nmse = 0.104\nsamples = 9\nvalue = -0.107", fillcolor="#f4ccaf"] ;
5 -> 43 ;
44 [label="Beef <= 0.5\nmse = 0.092\nsamples = 8\nvalue = -0.055", fillcolor="#f4caac"] ;
43 -> 44 ;
45 [label="mse = 0.058\nsamples = 4\nvalue = 0.05", fillcolor="#f3c6a5"] ;
44 -> 45 ;
46 [label="mse = 0.104\nsamples = 4\nvalue = -0.159", fillcolor="#f5ceb2"] ;
44 -> 46 ;
47 [label="mse = 0.0\nsamples = 1\nvalue = -0.524", fillcolor="#f8dcc8"] ;
43 -> 47 ;
48 [label="Sausage <= 0.5\nmse = 0.159\nsamples = 10\nvalue = -0.138", fillcolor="#f5cdb1"] ;
4 -> 48 ;
49 [label="Fish <= 0.5\nmse = 0.016\nsamples = 5\nvalue = -0.432", fillcolor="#f7d8c2"] ;
48 -> 49 ;
50 [label="mse = 0.0\nsamples = 1\nvalue = -0.632", fillcolor="#f9e0ce"] ;
49 -> 50 ;
51 [label="mse = 0.008\nsamples = 4\nvalue = -0.382", fillcolor="#f7d6bf"] ;
49 -> 51 ;
52 [label="mse = 0.129\nsamples = 5\nvalue = 0.157", fillcolor="#f2c29f"] ;
48 -> 52 ;
53 [label="Fish <= 0.5\nmse = 1.017\nsamples = 7\nvalue = 0.934", fillcolor="#eca470"] ;
3 -> 53 ;
54 [label="Sausage <= 0.5\nmse = 0.542\nsamples = 3\nvalue = 1.636", fillcolor="#e78946"] ;
53 -> 54 ;
55 [label="mse = 0.794\nsamples = 2\nvalue = 1.717", fillcolor="#e68641"] ;
54 -> 55 ;
56 [label="mse = 0.0\nsamples = 1\nvalue = 1.474", fillcolor="#e88f50"] ;
54 -> 56 ;
57 [label="mse = 0.727\nsamples = 4\nvalue = 0.408", fillcolor="#f0b890"] ;
53 -> 57 ;
58 [label="Fish <= 0.5\nmse = 0.778\nsamples = 7\nvalue = 0.965", fillcolor="#eca36e"] ;
2 -> 58 ;
59 [label="Beef <= 0.5\nmse = 0.032\nsamples = 3\nvalue = 1.726", fillcolor="#e68641"] ;
58 -> 59 ;
60 [label="mse = 0.0\nsamples = 1\nvalue = 1.474", fillcolor="#e88f50"] ;
59 -> 60 ;
61 [label="mse = 0.0\nsamples = 2\nvalue = 1.852", fillcolor="#e58139"] ;
59 -> 61 ;
62 [label="mse = 0.577\nsamples = 4\nvalue = 0.394", fillcolor="#f1b991"] ;
58 -> 62 ;
63 [label="Jun <= 0.5\nmse = 1.061\nsamples = 83\nvalue = -0.19", fillcolor="#f5cfb4"] ;
1 -> 63 ;
64 [label="Nov <= 0.5\nmse = 1.123\nsamples = 76\nvalue = -0.134", fillcolor="#f5cdb0"] ;
63 -> 64 ;
65 [label="Aug <= 0.5\nmse = 1.107\nsamples = 75\nvalue = -0.154", fillcolor="#f5ceb2"] ;
64 -> 65 ;
66 [label="Feb <= 0.5\nmse = 1.153\nsamples = 63\nvalue = -0.086", fillcolor="#f4cbad"] ;
65 -> 66 ;
67 [label="Mar <= 0.5\nmse = 1.079\nsamples = 54\nvalue = -0.032", fillcolor="#f4c9aa"] ;
66 -> 67 ;
68 [label="Jul <= 0.5\nmse = 1.173\nsamples = 47\nvalue = 0.027", fillcolor="#f3c7a7"] ;
67 -> 68 ;
69 [label="Jan <= 0.5\nmse = 1.269\nsamples = 40\nvalue = 0.068", fillcolor="#f3c5a4"] ;
68 -> 69 ;
70 [label="Dec <= 0.5\nmse = 1.324\nsamples = 36\nvalue = 0.099", fillcolor="#f3c4a2"] ;
69 -> 70 ;
71 [label="Oct <= 0.5\nmse = 1.357\nsamples = 35\nvalue = 0.086", fillcolor="#f3c5a3"] ;
70 -> 71 ;
72 [label="Sep <= 0.5\nmse = 1.386\nsamples = 31\nvalue = 0.065", fillcolor="#f3c5a4"] ;
71 -> 72 ;
73 [label="May <= 0.5\nmse = 0.99\nsamples = 21\nvalue = 0.032", fillcolor="#f3c7a6"] ;
72 -> 73 ;
74 [label="mse = 1.045\nsamples = 6\nvalue = -0.002", fillcolor="#f4c8a8"] ;
73 -> 74 ;
75 [label="mse = 0.968\nsamples = 15\nvalue = 0.045", fillcolor="#f3c6a6"] ;
73 -> 75 ;
76 [label="mse = 2.21\nsamples = 10\nvalue = 0.135", fillcolor="#f3c3a0"] ;
72 -> 76 ;
77 [label="mse = 1.099\nsamples = 4\nvalue = 0.252", fillcolor="#f2be99"] ;
71 -> 77 ;
78 [label="mse = 0.0\nsamples = 1\nvalue = 0.529", fillcolor="#efb489"] ;
70 -> 78 ;
79 [label="mse = 0.687\nsamples = 4\nvalue = -0.213", fillcolor="#f5d0b5"] ;
69 -> 79 ;
80 [label="mse = 0.559\nsamples = 7\nvalue = -0.207", fillcolor="#f5d0b5"] ;
68 -> 80 ;
81 [label="mse = 0.273\nsamples = 7\nvalue = -0.423", fillcolor="#f7d8c2"] ;
67 -> 81 ;
82 [label="mse = 1.475\nsamples = 9\nvalue = -0.41", fillcolor="#f7d8c1"] ;
66 -> 82 ;
83 [label="mse = 0.712\nsamples = 12\nvalue = -0.513", fillcolor="#f8dbc7"] ;
65 -> 83 ;
84 [label="mse = 0.0\nsamples = 1\nvalue = 1.366", fillcolor="#e99456"] ;
64 -> 84 ;
85 [label="mse = -0.0\nsamples = 7\nvalue = -0.794", fillcolor="#fae6d8"] ;
63 -> 85 ;
86 [label="Aug <= 0.5\nmse = 0.047\nsamples = 11\nvalue = -1.196", fillcolor="#fdf6f0"] ;
0 -> 86 [labeldistance=2.5, labelangle=-45, headlabel="False"] ;
87 [label="Sep <= 0.5\nmse = 0.027\nsamples = 6\nvalue = -1.109", fillcolor="#fcf2eb"] ;
86 -> 87 ;
88 [label="Oct <= 0.5\nmse = 0.005\nsamples = 5\nvalue = -1.042", fillcolor="#fcf0e7"] ;
87 -> 88 ;
89 [label="Jan <= 0.5\nmse = 0.001\nsamples = 4\nvalue = -1.077", fillcolor="#fcf1e9"] ;
88 -> 89 ;
90 [label="mse = 0.0\nsamples = 2\nvalue = -1.064", fillcolor="#fcf1e8"] ;
89 -> 90 ;
91 [label="mse = 0.001\nsamples = 2\nvalue = -1.091", fillcolor="#fcf2ea"] ;
89 -> 91 ;
92 [label="mse = 0.0\nsamples = 1\nvalue = -0.902", fillcolor="#fbeadf"] ;
88 -> 92 ;
93 [label="mse = 0.0\nsamples = 1\nvalue = -1.442", fillcolor="#ffffff"] ;
87 -> 93 ;
94 [label="mse = 0.051\nsamples = 5\nvalue = -1.301", fillcolor="#fefaf7"] ;
86 -> 94 ;
}